=== Run information ===

Scheme:weka.classifiers.trees.J48 -R -N 3 -Q 1 -M 100
Relation:     mushroom
Instances:    7000
Attributes:   23
              cap-shape
              cap-surface
              cap-color
              bruises?
              odor
              grill-attachment
              grill-spacing
              grill-size
              grill-color
              stalk-shape
              stalk-root
              stalk-surface-above-ring
              stalk-surface-below-ring
              stalk-color-above-ring
              stalk-color-below-ring
              veil-type
              veil-color
              ring-number
              ring-type
              spore-print-color
              population
              habitat
              class
Test mode:10-fold cross-validation

=== Classifier model (full training set) ===

J48 pruned tree
------------------

odor = a: e (271.0)
odor = l: e (270.0)
odor = c: p (141.0)
odor = y: p (267.0)
odor = f: p (1275.0)
odor = m: p (1.0)
odor = n: e (2031.0/76.0)
odor = p: p (170.0)
odor = s: p (241.0)

Number of Leaves  : 	9

Size of the tree : 	10


Time taken to build model: 0 seconds

=== Stratified cross-validation ===
=== Summary ===

Correctly Classified Instances        6887               98.3857 %
Incorrectly Classified Instances       113                1.6143 %
Kappa statistic                          0.9675
Mean absolute error                      0.0308
Root mean squared error                  0.1248
Relative absolute error                  6.1831 %
Root relative squared error             25.0148 %
Total Number of Instances             7000     

=== Detailed Accuracy By Class ===

               TP Rate   FP Rate   Precision   Recall  F-Measure   ROC Area  Class
                 1         0.035      0.971     1         0.985      0.986    e
                 0.965     0          1         0.965     0.982      0.986    p
Weighted Avg.    0.984     0.019      0.984     0.984     0.984      0.986

=== Confusion Matrix ===

    a    b   <-- classified as
 3744    0 |    a = e
  113 3143 |    b = p


=== Re-evaluation on test set ===

User supplied test set
Relation:     mushroom
Instances:     unknown (yet). Reading incrementally
Attributes:   23

=== Summary ===

Correctly Classified Instances        1117               99.3772 %
Incorrectly Classified Instances         7                0.6228 %
Kappa statistic                          0.9872
Mean absolute error                      0.0214
Root mean squared error                  0.0797
Total Number of Instances             1124     

=== Detailed Accuracy By Class ===

               TP Rate   FP Rate   Precision   Recall  F-Measure   ROC Area  Class
                 1         0.011      0.985     1         0.993      0.995    e
                 0.989     0          1         0.989     0.995      0.995    p
Weighted Avg.    0.994     0.004      0.994     0.994     0.994      0.995

=== Confusion Matrix ===

   a   b   <-- classified as
 464   0 |   a = e
   7 653 |   b = p

